<?xml version="1.0" encoding="UTF-8"?>
<PMML version="4.2" xmlns="http://www.dmg.org/PMML-4_2">
  <Header copyright="User">
    <Application name="KNIME" version="3.6.2"/>
  </Header>
  <DataDictionary numberOfFields="20">
    <DataField name="PlanDescription" optype="categorical" dataType="string">
      <Value value="Biochemistry and Cell Biology"/>
      <Value value="Geography"/>
      <Value value="Genetics &amp; Development Biology"/>
      <Value value="Applied &amp; Experimental Physiology"/>
      <Value value="Advanced Earth Sciences"/>
      <Value value="Chemistry"/>
      <Value value="Ecology Environment and Conservation"/>
      <Value value="Computational and Applied Mathematics"/>
      <Value value="Human Physiology"/>
      <Value value="Computer Science"/>
      <Value value="General"/>
      <Value value="Applied Chemistry"/>
      <Value value="Archaeology"/>
      <Value value="Animal Plant and Environmental Sciences"/>
      <Value value="Actuarial Science"/>
      <Value value="SB000 Default"/>
      <Value value="Biological Sciences"/>
      <Value value="Geology"/>
      <Value value="Microbiology and Biotechnology"/>
      <Value value="Nuclear Sciences and Engineering"/>
      <Value value="Chemistry with Chemical Engineering"/>
      <Value value="Applied Bioinformatics"/>
      <Value value="Economic Science"/>
      <Value value="Mathematics"/>
      <Value value="Astronomy Astrophysics"/>
      <Value value="Investment and Corporate Finance"/>
      <Value value="Plant Sciences"/>
      <Value value="Applied Computing"/>
      <Value value="Medical Cell Biology"/>
      <Value value="Materials Science"/>
      <Value value="Information Systems"/>
      <Value value="Geography and Archaeology Sciences"/>
      <Value value="Human Biology"/>
      <Value value="Economic Theory"/>
      <Value value="Material Science with Metallurgy"/>
      <Value value="Physics"/>
      <Value value="Science Occ Studies (UG)"/>
      <Value value="Physical Science"/>
      <Value value="Mathematical Statistics"/>
      <Value value="Mathematics of Finance"/>
      <Value value="Mathematical Sciences A"/>
    </DataField>
    <DataField name="Homeprovince" optype="categorical" dataType="string">
      <Value value="GA"/>
      <Value value="MP"/>
      <Value value="LP"/>
      <Value value="EC"/>
      <Value value="KZ"/>
      <Value value="NC"/>
      <Value value="FS"/>
      <Value value="WC"/>
      <Value value="NW"/>
      <Value value="NaN"/>
    </DataField>
    <DataField name="AgeatFirstYear" optype="continuous" dataType="integer">
      <Interval closure="closedClosed" leftMargin="18.0" rightMargin="40.0"/>
    </DataField>
    <DataField name="SchoolQuintile" optype="categorical" dataType="string">
      <Value value="Q5"/>
      <Value value="Q2"/>
      <Value value="Q4"/>
      <Value value="Q3"/>
      <Value value="Q1"/>
    </DataField>
    <DataField name="isRuralorUrban" optype="categorical" dataType="string">
      <Value value="URBAN"/>
      <Value value="RURAL"/>
    </DataField>
    <DataField name="LifeOrientation" optype="continuous" dataType="double">
      <Interval closure="closedClosed" leftMargin="0.0" rightMargin="100.0"/>
    </DataField>
    <DataField name="MathematicsMatricMajor" optype="continuous" dataType="double">
      <Interval closure="closedClosed" leftMargin="0.0" rightMargin="100.0"/>
    </DataField>
    <DataField name="MathematicsMatricLit" optype="continuous" dataType="double">
      <Interval closure="closedClosed" leftMargin="0.0" rightMargin="99.0"/>
    </DataField>
    <DataField name="AdditionalMathematics" optype="continuous" dataType="double">
      <Interval closure="closedClosed" leftMargin="0.0" rightMargin="100.0"/>
    </DataField>
    <DataField name="EnglishFirstLang" optype="continuous" dataType="double">
      <Interval closure="closedClosed" leftMargin="0.0" rightMargin="100.0"/>
    </DataField>
    <DataField name="EnglishFirstAdditional" optype="continuous" dataType="double">
      <Interval closure="closedClosed" leftMargin="0.0" rightMargin="95.0"/>
    </DataField>
    <DataField name="ComputerStudies" optype="continuous" dataType="double">
      <Interval closure="closedClosed" leftMargin="0.0" rightMargin="98.0"/>
    </DataField>
    <DataField name="NBTAL" optype="continuous" dataType="double">
      <Interval closure="closedClosed" leftMargin="25.0" rightMargin="92.0"/>
    </DataField>
    <DataField name="NBTMA" optype="continuous" dataType="double">
      <Interval closure="closedClosed" leftMargin="21.0" rightMargin="98.0"/>
    </DataField>
    <DataField name="NBTQL" optype="continuous" dataType="double">
      <Interval closure="closedClosed" leftMargin="23.0" rightMargin="98.0"/>
    </DataField>
    <DataField name="PhysicsChem" optype="continuous" dataType="double">
      <Interval closure="closedClosed" leftMargin="0.0" rightMargin="100.0"/>
    </DataField>
    <DataField name="Geography" optype="continuous" dataType="double">
      <Interval closure="closedClosed" leftMargin="0.0" rightMargin="100.0"/>
    </DataField>
    <DataField name="LifeSciences" optype="continuous" dataType="double">
      <Interval closure="closedClosed" leftMargin="0.0" rightMargin="100.0"/>
    </DataField>
    <DataField name="Response" optype="categorical" dataType="string">
      <Value value="QualMin"/>
      <Value value="Qualified"/>
      <Value value="Failed"/>
    </DataField>
    <DataField name="International" optype="categorical" dataType="string">
      <Value value="ZAF"/>
      <Value value="IS"/>
    </DataField>
  </DataDictionary>
  <TreeModel modelName="DecisionTree" functionName="classification" splitCharacteristic="multiSplit" missingValueStrategy="lastPrediction" noTrueChildStrategy="returnNullPrediction">
    <MiningSchema>
      <MiningField name="PlanDescription" invalidValueTreatment="asIs"/>
      <MiningField name="Homeprovince" invalidValueTreatment="asIs"/>
      <MiningField name="AgeatFirstYear" invalidValueTreatment="asIs"/>
      <MiningField name="SchoolQuintile" invalidValueTreatment="asIs"/>
      <MiningField name="isRuralorUrban" invalidValueTreatment="asIs"/>
      <MiningField name="LifeOrientation" invalidValueTreatment="asIs"/>
      <MiningField name="MathematicsMatricMajor" invalidValueTreatment="asIs"/>
      <MiningField name="MathematicsMatricLit" invalidValueTreatment="asIs"/>
      <MiningField name="AdditionalMathematics" invalidValueTreatment="asIs"/>
      <MiningField name="EnglishFirstLang" invalidValueTreatment="asIs"/>
      <MiningField name="EnglishFirstAdditional" invalidValueTreatment="asIs"/>
      <MiningField name="ComputerStudies" invalidValueTreatment="asIs"/>
      <MiningField name="NBTAL" invalidValueTreatment="asIs"/>
      <MiningField name="NBTMA" invalidValueTreatment="asIs"/>
      <MiningField name="NBTQL" invalidValueTreatment="asIs"/>
      <MiningField name="PhysicsChem" invalidValueTreatment="asIs"/>
      <MiningField name="Geography" invalidValueTreatment="asIs"/>
      <MiningField name="LifeSciences" invalidValueTreatment="asIs"/>
      <MiningField name="International" invalidValueTreatment="asIs"/>
      <MiningField name="Response" invalidValueTreatment="asIs" usageType="target"/>
    </MiningSchema>
    <Node id="0" score="Qualified" recordCount="2565.0">
      <True/>
      <ScoreDistribution value="QualMin" recordCount="833.0"/>
      <ScoreDistribution value="Qualified" recordCount="870.0"/>
      <ScoreDistribution value="Failed" recordCount="862.0"/>
      <Node id="2" score="Qualified" recordCount="2371.0">
        <SimplePredicate field="AgeatFirstYear" operator="lessOrEqual" value="26.5"/>
        <ScoreDistribution value="QualMin" recordCount="662.0"/>
        <ScoreDistribution value="Qualified" recordCount="857.0"/>
        <ScoreDistribution value="Failed" recordCount="852.0"/>
        <Node id="66" score="Failed" recordCount="723.0">
          <SimplePredicate field="AgeatFirstYear" operator="lessOrEqual" value="21.5"/>
          <ScoreDistribution value="QualMin" recordCount="245.0"/>
          <ScoreDistribution value="Qualified" recordCount="42.0"/>
          <ScoreDistribution value="Failed" recordCount="436.0"/>
          <Node id="68" score="QualMin" recordCount="37.0">
            <SimplePredicate field="PlanDescription" operator="equal" value="Biochemistry and Cell Biology"/>
            <ScoreDistribution value="QualMin" recordCount="26.0"/>
            <ScoreDistribution value="Qualified" recordCount="6.0"/>
            <ScoreDistribution value="Failed" recordCount="5.0"/>
            <Node id="69" score="QualMin" recordCount="14.837837837837839">
              <SimplePredicate field="SchoolQuintile" operator="equal" value="Q5"/>
              <ScoreDistribution value="QualMin" recordCount="10.91891891891892"/>
              <ScoreDistribution value="Qualified" recordCount="1.9189189189189189"/>
              <ScoreDistribution value="Failed" recordCount="2.0"/>
              <Node id="70" score="QualMin" recordCount="6.378378378378379">
                <SimplePredicate field="PhysicsChem" operator="lessOrEqual" value="63.0"/>
                <ScoreDistribution value="QualMin" recordCount="2.4594594594594597"/>
                <ScoreDistribution value="Qualified" recordCount="1.9189189189189189"/>
                <ScoreDistribution value="Failed" recordCount="2.0"/>
                <Node id="71" score="QualMin" recordCount="4.378378378378379">
                  <SimplePredicate field="LifeSciences" operator="lessOrEqual" value="74.5"/>
                  <ScoreDistribution value="QualMin" recordCount="2.4594594594594597"/>
                  <ScoreDistribution value="Qualified" recordCount="1.9189189189189189"/>
                  <ScoreDistribution value="Failed" recordCount="0.0"/>
                </Node>
                <Node id="72" score="Failed" recordCount="2.0">
                  <SimplePredicate field="LifeSciences" operator="greaterThan" value="74.5"/>
                  <ScoreDistribution value="QualMin" recordCount="0.0"/>
                  <ScoreDistribution value="Qualified" recordCount="0.0"/>
                  <ScoreDistribution value="Failed" recordCount="2.0"/>
                </Node>
              </Node>
              <Node id="73" score="QualMin" recordCount="8.45945945945946">
                <SimplePredicate field="PhysicsChem" operator="greaterThan" value="63.0"/>
                <ScoreDistribution value="QualMin" recordCount="8.45945945945946"/>
                <ScoreDistribution value="Qualified" recordCount="0.0"/>
                <ScoreDistribution value="Failed" recordCount="0.0"/>
              </Node>
            </Node>
            <Node id="74" score="QualMin" recordCount="6.648648648648649">
              <SimplePredicate field="SchoolQuintile" operator="equal" value="Q2"/>
              <ScoreDistribution value="QualMin" recordCount="5.324324324324325"/>
              <ScoreDistribution value="Qualified" recordCount="0.32432432432432434"/>
              <ScoreDistribution value="Failed" recordCount="1.0"/>
            </Node>
            <Node id="77" score="Qualified" recordCount="3.3243243243243246">
              <SimplePredicate field="SchoolQuintile" operator="equal" value="Q4"/>
              <ScoreDistribution value="QualMin" recordCount="0.16216216216216217"/>
              <ScoreDistribution value="Qualified" recordCount="3.1621621621621623"/>
              <ScoreDistribution value="Failed" recordCount="0.0"/>
            </Node>
            <Node id="78" score="QualMin" recordCount="8.864864864864863">
              <SimplePredicate field="SchoolQuintile" operator="equal" value="Q3"/>
              <ScoreDistribution value="QualMin" recordCount="6.432432432432432"/>
              <ScoreDistribution value="Qualified" recordCount="0.43243243243243246"/>
              <ScoreDistribution value="Failed" recordCount="2.0"/>
            </Node>
            <Node id="81" score="QualMin" recordCount="3.3243243243243246">
              <SimplePredicate field="SchoolQuintile" operator="equal" value="Q1"/>
              <ScoreDistribution value="QualMin" recordCount="3.1621621621621623"/>
              <ScoreDistribution value="Qualified" recordCount="0.16216216216216217"/>
              <ScoreDistribution value="Failed" recordCount="0.0"/>
            </Node>
          </Node>
          <Node id="82" score="QualMin" recordCount="11.0">
            <SimplePredicate field="PlanDescription" operator="equal" value="Geography"/>
            <ScoreDistribution value="QualMin" recordCount="7.0"/>
            <ScoreDistribution value="Qualified" recordCount="4.0"/>
            <ScoreDistribution value="Failed" recordCount="0.0"/>
            <Node id="83" score="QualMin" recordCount="9.0">
              <SimplePredicate field="LifeOrientation" operator="lessOrEqual" value="89.5"/>
              <ScoreDistribution value="QualMin" recordCount="7.0"/>
              <ScoreDistribution value="Qualified" recordCount="2.0"/>
              <ScoreDistribution value="Failed" recordCount="0.0"/>
              <Node id="84" score="Qualified" recordCount="2.25">
                <SimplePredicate field="NBTQL" operator="lessOrEqual" value="38.0"/>
                <ScoreDistribution value="QualMin" recordCount="0.25"/>
                <ScoreDistribution value="Qualified" recordCount="2.0"/>
                <ScoreDistribution value="Failed" recordCount="0.0"/>
              </Node>
              <Node id="85" score="QualMin" recordCount="6.75">
                <SimplePredicate field="NBTQL" operator="greaterThan" value="38.0"/>
                <ScoreDistribution value="QualMin" recordCount="6.75"/>
                <ScoreDistribution value="Qualified" recordCount="0.0"/>
                <ScoreDistribution value="Failed" recordCount="0.0"/>
              </Node>
            </Node>
            <Node id="86" score="Qualified" recordCount="2.0">
              <SimplePredicate field="LifeOrientation" operator="greaterThan" value="89.5"/>
              <ScoreDistribution value="QualMin" recordCount="0.0"/>
              <ScoreDistribution value="Qualified" recordCount="2.0"/>
              <ScoreDistribution value="Failed" recordCount="0.0"/>
            </Node>
          </Node>
          <Node id="87" score="QualMin" recordCount="22.0">
            <SimplePredicate field="PlanDescription" operator="equal" value="Genetics &amp; Development Biology"/>
            <ScoreDistribution value="QualMin" recordCount="16.0"/>
            <ScoreDistribution value="Qualified" recordCount="4.0"/>
            <ScoreDistribution value="Failed" recordCount="2.0"/>
            <Node id="88" score="QualMin" recordCount="19.81818181818182">
              <SimplePredicate field="isRuralorUrban" operator="equal" value="URBAN"/>
              <ScoreDistribution value="QualMin" recordCount="15.818181818181818"/>
              <ScoreDistribution value="Qualified" recordCount="2.0"/>
              <ScoreDistribution value="Failed" recordCount="2.0"/>
            </Node>
            <Node id="89" score="Qualified" recordCount="2.1818181818181817">
              <SimplePredicate field="isRuralorUrban" operator="equal" value="RURAL"/>
              <ScoreDistribution value="QualMin" recordCount="0.18181818181818182"/>
              <ScoreDistribution value="Qualified" recordCount="2.0"/>
              <ScoreDistribution value="Failed" recordCount="0.0"/>
            </Node>
          </Node>
          <Node id="90" score="QualMin" recordCount="5.0">
            <SimplePredicate field="PlanDescription" operator="equal" value="Advanced Earth Sciences"/>
            <ScoreDistribution value="QualMin" recordCount="3.0"/>
            <ScoreDistribution value="Qualified" recordCount="2.0"/>
            <ScoreDistribution value="Failed" recordCount="0.0"/>
            <Node id="95" score="Qualified" recordCount="3.0">
              <SimplePredicate field="Geography" operator="lessOrEqual" value="75.0"/>
              <ScoreDistribution value="QualMin" recordCount="1.0"/>
              <ScoreDistribution value="Qualified" recordCount="2.0"/>
              <ScoreDistribution value="Failed" recordCount="0.0"/>
            </Node>
            <Node id="96" score="QualMin" recordCount="2.0">
              <SimplePredicate field="Geography" operator="greaterThan" value="75.0"/>
              <ScoreDistribution value="QualMin" recordCount="2.0"/>
              <ScoreDistribution value="Qualified" recordCount="0.0"/>
              <ScoreDistribution value="Failed" recordCount="0.0"/>
            </Node>
          </Node>
          <Node id="98" score="QualMin" recordCount="12.0">
            <SimplePredicate field="PlanDescription" operator="equal" value="Chemistry"/>
            <ScoreDistribution value="QualMin" recordCount="9.0"/>
            <ScoreDistribution value="Qualified" recordCount="2.0"/>
            <ScoreDistribution value="Failed" recordCount="1.0"/>
            <Node id="101" score="QualMin" recordCount="5.0">
              <SimplePredicate field="Homeprovince" operator="equal" value="GA"/>
              <ScoreDistribution value="QualMin" recordCount="5.0"/>
              <ScoreDistribution value="Qualified" recordCount="0.0"/>
              <ScoreDistribution value="Failed" recordCount="0.0"/>
            </Node>
            <Node id="102" score="QualMin" recordCount="2.0">
              <SimplePredicate field="Homeprovince" operator="equal" value="LP"/>
              <ScoreDistribution value="QualMin" recordCount="2.0"/>
              <ScoreDistribution value="Qualified" recordCount="0.0"/>
              <ScoreDistribution value="Failed" recordCount="0.0"/>
            </Node>
            <Node id="103" score="Failed" recordCount="1.0">
              <SimplePredicate field="Homeprovince" operator="equal" value="EC"/>
              <ScoreDistribution value="QualMin" recordCount="0.0"/>
              <ScoreDistribution value="Qualified" recordCount="0.0"/>
              <ScoreDistribution value="Failed" recordCount="1.0"/>
            </Node>
            <Node id="104" score="QualMin" recordCount="3.0">
              <SimplePredicate field="Homeprovince" operator="equal" value="MP"/>
              <ScoreDistribution value="QualMin" recordCount="2.0"/>
              <ScoreDistribution value="Qualified" recordCount="1.0"/>
              <ScoreDistribution value="Failed" recordCount="0.0"/>
            </Node>
            <Node id="109" score="Qualified" recordCount="1.0">
              <SimplePredicate field="Homeprovince" operator="equal" value="NW"/>
              <ScoreDistribution value="QualMin" recordCount="0.0"/>
              <ScoreDistribution value="Qualified" recordCount="1.0"/>
              <ScoreDistribution value="Failed" recordCount="0.0"/>
            </Node>
          </Node>
          <Node id="111" score="QualMin" recordCount="1.0">
            <SimplePredicate field="PlanDescription" operator="equal" value="Ecology Environment and Conservation"/>
            <ScoreDistribution value="QualMin" recordCount="1.0"/>
            <ScoreDistribution value="Qualified" recordCount="0.0"/>
            <ScoreDistribution value="Failed" recordCount="0.0"/>
          </Node>
          <Node id="112" score="Failed" recordCount="41.0">
            <SimplePredicate field="PlanDescription" operator="equal" value="Computational and Applied Mathematics"/>
            <ScoreDistribution value="QualMin" recordCount="18.0"/>
            <ScoreDistribution value="Qualified" recordCount="1.0"/>
            <ScoreDistribution value="Failed" recordCount="22.0"/>
            <Node id="113" score="Failed" recordCount="39.0">
              <SimplePredicate field="PhysicsChem" operator="lessOrEqual" value="95.5"/>
              <ScoreDistribution value="QualMin" recordCount="16.0"/>
              <ScoreDistribution value="Qualified" recordCount="1.0"/>
              <ScoreDistribution value="Failed" recordCount="22.0"/>
              <Node id="114" score="Failed" recordCount="30.93103448275862">
                <SimplePredicate field="NBTMA" operator="lessOrEqual" value="70.5"/>
                <ScoreDistribution value="QualMin" recordCount="10.172413793103448"/>
                <ScoreDistribution value="Qualified" recordCount="0.0"/>
                <ScoreDistribution value="Failed" recordCount="20.75862068965517"/>
                <Node id="115" score="Failed" recordCount="11.386950542454034">
                  <SimplePredicate field="LifeSciences" operator="lessOrEqual" value="75.5"/>
                  <ScoreDistribution value="QualMin" recordCount="1.7204197015229463"/>
                  <ScoreDistribution value="Qualified" recordCount="0.0"/>
                  <ScoreDistribution value="Failed" recordCount="9.666530840931088"/>
                </Node>
                <Node id="120" score="Failed" recordCount="19.544083940304585">
                  <SimplePredicate field="LifeSciences" operator="greaterThan" value="75.5"/>
                  <ScoreDistribution value="QualMin" recordCount="8.451994091580502"/>
                  <ScoreDistribution value="Qualified" recordCount="0.0"/>
                  <ScoreDistribution value="Failed" recordCount="11.092089848724083"/>
                  <Node id="121" score="QualMin" recordCount="2.7306306547227566">
                    <SimplePredicate field="LifeOrientation" operator="lessOrEqual" value="73.0"/>
                    <ScoreDistribution value="QualMin" recordCount="2.7306306547227566"/>
                    <ScoreDistribution value="Qualified" recordCount="0.0"/>
                    <ScoreDistribution value="Failed" recordCount="0.0"/>
                  </Node>
                  <Node id="122" score="Failed" recordCount="16.81345328558183">
                    <SimplePredicate field="LifeOrientation" operator="greaterThan" value="73.0"/>
                    <ScoreDistribution value="QualMin" recordCount="5.721363436857746"/>
                    <ScoreDistribution value="Qualified" recordCount="0.0"/>
                    <ScoreDistribution value="Failed" recordCount="11.092089848724083"/>
                    <Node id="123" score="Failed" recordCount="14.336683963059864">
                      <SimplePredicate field="LifeSciences" operator="lessOrEqual" value="89.5"/>
                      <ScoreDistribution value="QualMin" recordCount="3.5832550005207846"/>
                      <ScoreDistribution value="Qualified" recordCount="0.0"/>
                      <ScoreDistribution value="Failed" recordCount="10.753428962539079"/>
                    </Node>
                    <Node id="126" score="QualMin" recordCount="2.47676932252197">
                      <SimplePredicate field="LifeSciences" operator="greaterThan" value="89.5"/>
                      <ScoreDistribution value="QualMin" recordCount="2.1381084363369625"/>
                      <ScoreDistribution value="Qualified" recordCount="0.0"/>
                      <ScoreDistribution value="Failed" recordCount="0.3386608861850075"/>
                    </Node>
                  </Node>
                </Node>
              </Node>
              <Node id="127" score="QualMin" recordCount="8.068965517241379">
                <SimplePredicate field="NBTMA" operator="greaterThan" value="70.5"/>
                <ScoreDistribution value="QualMin" recordCount="5.827586206896552"/>
                <ScoreDistribution value="Qualified" recordCount="1.0"/>
                <ScoreDistribution value="Failed" recordCount="1.2413793103448274"/>
                <Node id="129" score="QualMin" recordCount="2.6206896551724137">
                  <SimplePredicate field="PhysicsChem" operator="lessOrEqual" value="76.5"/>
                  <ScoreDistribution value="QualMin" recordCount="1.0"/>
                  <ScoreDistribution value="Qualified" recordCount="1.0"/>
                  <ScoreDistribution value="Failed" recordCount="0.6206896551724137"/>
                </Node>
                <Node id="131" score="QualMin" recordCount="5.448275862068965">
                  <SimplePredicate field="PhysicsChem" operator="greaterThan" value="76.5"/>
                  <ScoreDistribution value="QualMin" recordCount="4.827586206896552"/>
                  <ScoreDistribution value="Qualified" recordCount="0.0"/>
                  <ScoreDistribution value="Failed" recordCount="0.6206896551724137"/>
                  <Node id="136" score="QualMin" recordCount="2.413793103448276">
                    <SimplePredicate field="SchoolQuintile" operator="equal" value="Q5"/>
                    <ScoreDistribution value="QualMin" recordCount="2.206896551724138"/>
                    <ScoreDistribution value="Qualified" recordCount="0.0"/>
                    <ScoreDistribution value="Failed" recordCount="0.2068965517241379"/>
                  </Node>
                  <Node id="137" score="QualMin" recordCount="0.4137931034482758">
                    <SimplePredicate field="SchoolQuintile" operator="equal" value="Q2"/>
                    <ScoreDistribution value="QualMin" recordCount="0.4137931034482758"/>
                    <ScoreDistribution value="Qualified" recordCount="0.0"/>
                    <ScoreDistribution value="Failed" recordCount="0.0"/>
                  </Node>
                  <Node id="140" score="QualMin" recordCount="2.0">
                    <SimplePredicate field="SchoolQuintile" operator="equal" value="Q3"/>
                    <ScoreDistribution value="QualMin" recordCount="2.0"/>
                    <ScoreDistribution value="Qualified" recordCount="0.0"/>
                    <ScoreDistribution value="Failed" recordCount="0.0"/>
                  </Node>
                  <Node id="142" score="Failed" recordCount="0.6206896551724137">
                    <SimplePredicate field="SchoolQuintile" operator="equal" value="Q1"/>
                    <ScoreDistribution value="QualMin" recordCount="0.2068965517241379"/>
                    <ScoreDistribution value="Qualified" recordCount="0.0"/>
                    <ScoreDistribution value="Failed" recordCount="0.4137931034482758"/>
                  </Node>
                </Node>
              </Node>
            </Node>
            <Node id="147" score="QualMin" recordCount="2.0">
              <SimplePredicate field="PhysicsChem" operator="greaterThan" value="95.5"/>
              <ScoreDistribution value="QualMin" recordCount="2.0"/>
              <ScoreDistribution value="Qualified" recordCount="0.0"/>
              <ScoreDistribution value="Failed" recordCount="0.0"/>
            </Node>
          </Node>
          <Node id="151" score="QualMin" recordCount="6.0">
            <SimplePredicate field="PlanDescription" operator="equal" value="Human Physiology"/>
            <ScoreDistribution value="QualMin" recordCount="6.0"/>
            <ScoreDistribution value="Qualified" recordCount="0.0"/>
            <ScoreDistribution value="Failed" recordCount="0.0"/>
          </Node>
          <Node id="152" score="QualMin" recordCount="17.0">
            <SimplePredicate field="PlanDescription" operator="equal" value="Computer Science"/>
            <ScoreDistribution value="QualMin" recordCount="8.0"/>
            <ScoreDistribution value="Qualified" recordCount="2.0"/>
            <ScoreDistribution value="Failed" recordCount="7.0"/>
            <Node id="158" score="Failed" recordCount="5.0">
              <SimplePredicate field="MathematicsMatricMajor" operator="lessOrEqual" value="78.0"/>
              <ScoreDistribution value="QualMin" recordCount="0.0"/>
              <ScoreDistribution value="Qualified" recordCount="1.0"/>
              <ScoreDistribution value="Failed" recordCount="4.0"/>
            </Node>
            <Node id="174" score="QualMin" recordCount="12.0">
              <SimplePredicate field="MathematicsMatricMajor" operator="greaterThan" value="78.0"/>
              <ScoreDistribution value="QualMin" recordCount="8.0"/>
              <ScoreDistribution value="Qualified" recordCount="1.0"/>
              <ScoreDistribution value="Failed" recordCount="3.0"/>
              <Node id="175" score="QualMin" recordCount="8.0">
                <SimplePredicate field="SchoolQuintile" operator="equal" value="Q5"/>
                <ScoreDistribution value="QualMin" recordCount="7.0"/>
                <ScoreDistribution value="Qualified" recordCount="0.0"/>
                <ScoreDistribution value="Failed" recordCount="1.0"/>
              </Node>
              <Node id="180" score="QualMin" recordCount="1.0">
                <SimplePredicate field="SchoolQuintile" operator="equal" value="Q4"/>
                <ScoreDistribution value="QualMin" recordCount="1.0"/>
                <ScoreDistribution value="Qualified" recordCount="0.0"/>
                <ScoreDistribution value="Failed" recordCount="0.0"/>
              </Node>
              <Node id="181" score="Failed" recordCount="3.0">
                <SimplePredicate field="SchoolQuintile" operator="equal" value="Q3"/>
                <ScoreDistribution value="QualMin" recordCount="0.0"/>
                <ScoreDistribution value="Qualified" recordCount="1.0"/>
                <ScoreDistribution value="Failed" recordCount="2.0"/>
              </Node>
            </Node>
          </Node>
          <Node id="209" score="Failed" recordCount="272.0">
            <SimplePredicate field="PlanDescription" operator="equal" value="General"/>
            <ScoreDistribution value="QualMin" recordCount="2.0"/>
            <ScoreDistribution value="Qualified" recordCount="0.0"/>
            <ScoreDistribution value="Failed" recordCount="270.0"/>
          </Node>
          <Node id="221" score="QualMin" recordCount="14.0">
            <SimplePredicate field="PlanDescription" operator="equal" value="Applied Chemistry"/>
            <ScoreDistribution value="QualMin" recordCount="14.0"/>
            <ScoreDistribution value="Qualified" recordCount="0.0"/>
            <ScoreDistribution value="Failed" recordCount="0.0"/>
          </Node>
          <Node id="222" score="QualMin" recordCount="3.0">
            <SimplePredicate field="PlanDescription" operator="equal" value="Archaeology"/>
            <ScoreDistribution value="QualMin" recordCount="3.0"/>
            <ScoreDistribution value="Qualified" recordCount="0.0"/>
            <ScoreDistribution value="Failed" recordCount="0.0"/>
          </Node>
          <Node id="223" score="QualMin" recordCount="46.0">
            <SimplePredicate field="PlanDescription" operator="equal" value="Animal Plant and Environmental Sciences"/>
            <ScoreDistribution value="QualMin" recordCount="38.0"/>
            <ScoreDistribution value="Qualified" recordCount="4.0"/>
            <ScoreDistribution value="Failed" recordCount="4.0"/>
            <Node id="224" score="QualMin" recordCount="18.0">
              <SimplePredicate field="MathematicsMatricMajor" operator="lessOrEqual" value="68.5"/>
              <ScoreDistribution value="QualMin" recordCount="13.0"/>
              <ScoreDistribution value="Qualified" recordCount="1.0"/>
              <ScoreDistribution value="Failed" recordCount="4.0"/>
              <Node id="225" score="Failed" recordCount="2.25">
                <SimplePredicate field="NBTQL" operator="lessOrEqual" value="41.5"/>
                <ScoreDistribution value="QualMin" recordCount="0.25"/>
                <ScoreDistribution value="Qualified" recordCount="0.0"/>
                <ScoreDistribution value="Failed" recordCount="2.0"/>
              </Node>
              <Node id="226" score="QualMin" recordCount="15.75">
                <SimplePredicate field="NBTQL" operator="greaterThan" value="41.5"/>
                <ScoreDistribution value="QualMin" recordCount="12.75"/>
                <ScoreDistribution value="Qualified" recordCount="1.0"/>
                <ScoreDistribution value="Failed" recordCount="2.0"/>
              </Node>
            </Node>
            <Node id="234" score="QualMin" recordCount="28.0">
              <SimplePredicate field="MathematicsMatricMajor" operator="greaterThan" value="68.5"/>
              <ScoreDistribution value="QualMin" recordCount="25.0"/>
              <ScoreDistribution value="Qualified" recordCount="3.0"/>
              <ScoreDistribution value="Failed" recordCount="0.0"/>
              <Node id="235" score="QualMin" recordCount="2.0">
                <SimplePredicate field="LifeOrientation" operator="lessOrEqual" value="70.5"/>
                <ScoreDistribution value="QualMin" recordCount="1.0"/>
                <ScoreDistribution value="Qualified" recordCount="1.0"/>
                <ScoreDistribution value="Failed" recordCount="0.0"/>
              </Node>
              <Node id="236" score="QualMin" recordCount="26.0">
                <SimplePredicate field="LifeOrientation" operator="greaterThan" value="70.5"/>
                <ScoreDistribution value="QualMin" recordCount="24.0"/>
                <ScoreDistribution value="Qualified" recordCount="2.0"/>
                <ScoreDistribution value="Failed" recordCount="0.0"/>
                <Node id="238" score="QualMin" recordCount="6.5">
                  <SimplePredicate field="NBTQL" operator="lessOrEqual" value="40.5"/>
                  <ScoreDistribution value="QualMin" recordCount="4.5"/>
                  <ScoreDistribution value="Qualified" recordCount="2.0"/>
                  <ScoreDistribution value="Failed" recordCount="0.0"/>
                  <Node id="239" score="QualMin" recordCount="3.25">
                    <SimplePredicate field="LifeOrientation" operator="lessOrEqual" value="81.0"/>
                    <ScoreDistribution value="QualMin" recordCount="3.25"/>
                    <ScoreDistribution value="Qualified" recordCount="0.0"/>
                    <ScoreDistribution value="Failed" recordCount="0.0"/>
                  </Node>
                  <Node id="240" score="Qualified" recordCount="3.25">
                    <SimplePredicate field="LifeOrientation" operator="greaterThan" value="81.0"/>
                    <ScoreDistribution value="QualMin" recordCount="1.25"/>
                    <ScoreDistribution value="Qualified" recordCount="2.0"/>
                    <ScoreDistribution value="Failed" recordCount="0.0"/>
                  </Node>
                </Node>
                <Node id="241" score="QualMin" recordCount="19.5">
                  <SimplePredicate field="NBTQL" operator="greaterThan" value="40.5"/>
                  <ScoreDistribution value="QualMin" recordCount="19.5"/>
                  <ScoreDistribution value="Qualified" recordCount="0.0"/>
                  <ScoreDistribution value="Failed" recordCount="0.0"/>
                </Node>
              </Node>
            </Node>
          </Node>
          <Node id="242" score="QualMin" recordCount="68.0">
            <SimplePredicate field="PlanDescription" operator="equal" value="Actuarial Science"/>
            <ScoreDistribution value="QualMin" recordCount="40.0"/>
            <ScoreDistribution value="Qualified" recordCount="13.0"/>
            <ScoreDistribution value="Failed" recordCount="15.0"/>
            <Node id="244" score="Qualified" recordCount="10.303030303030303">
              <SimplePredicate field="LifeOrientation" operator="lessOrEqual" value="75.5"/>
              <ScoreDistribution value="QualMin" recordCount="0.15151515151515152"/>
              <ScoreDistribution value="Qualified" recordCount="6.151515151515151"/>
              <ScoreDistribution value="Failed" recordCount="4.0"/>
              <Node id="245" score="Failed" recordCount="6.181818181818182">
                <SimplePredicate field="MathematicsMatricMajor" operator="lessOrEqual" value="90.0"/>
                <ScoreDistribution value="QualMin" recordCount="0.0909090909090909"/>
                <ScoreDistribution value="Qualified" recordCount="2.090909090909091"/>
                <ScoreDistribution value="Failed" recordCount="4.0"/>
                <Node id="246" score="Failed" recordCount="2.064171122994652">
                  <SimplePredicate field="SchoolQuintile" operator="equal" value="Q5"/>
                  <ScoreDistribution value="QualMin" recordCount="0.0320855614973262"/>
                  <ScoreDistribution value="Qualified" recordCount="0.0320855614973262"/>
                  <ScoreDistribution value="Failed" recordCount="2.0"/>
                </Node>
                <Node id="248" score="Qualified" recordCount="1.0294117647058822">
                  <SimplePredicate field="SchoolQuintile" operator="equal" value="Q4"/>
                  <ScoreDistribution value="QualMin" recordCount="0.014705882352941175"/>
                  <ScoreDistribution value="Qualified" recordCount="1.0147058823529411"/>
                  <ScoreDistribution value="Failed" recordCount="0.0"/>
                </Node>
                <Node id="249" score="Failed" recordCount="1.0294117647058822">
                  <SimplePredicate field="SchoolQuintile" operator="equal" value="Q3"/>
                  <ScoreDistribution value="QualMin" recordCount="0.014705882352941175"/>
                  <ScoreDistribution value="Qualified" recordCount="0.014705882352941175"/>
                  <ScoreDistribution value="Failed" recordCount="1.0"/>
                </Node>
                <Node id="250" score="Qualified" recordCount="2.0588235294117645">
                  <SimplePredicate field="SchoolQuintile" operator="equal" value="Q1"/>
                  <ScoreDistribution value="QualMin" recordCount="0.02941176470588235"/>
                  <ScoreDistribution value="Qualified" recordCount="1.0294117647058822"/>
                  <ScoreDistribution value="Failed" recordCount="1.0"/>
                </Node>
              </Node>
              <Node id="251" score="Qualified" recordCount="4.121212121212121">
                <SimplePredicate field="MathematicsMatricMajor" operator="greaterThan" value="90.0"/>
                <ScoreDistribution value="QualMin" recordCount="0.06060606060606063"/>
                <ScoreDistribution value="Qualified" recordCount="4.0606060606060606"/>
                <ScoreDistribution value="Failed" recordCount="0.0"/>
              </Node>
            </Node>
            <Node id="254" score="QualMin" recordCount="57.6969696969697">
              <SimplePredicate field="LifeOrientation" operator="greaterThan" value="75.5"/>
              <ScoreDistribution value="QualMin" recordCount="39.84848484848485"/>
              <ScoreDistribution value="Qualified" recordCount="6.848484848484849"/>
              <ScoreDistribution value="Failed" recordCount="11.0"/>
              <Node id="256" score="Failed" recordCount="4.629787234042553">
                <SimplePredicate field="NBTMA" operator="lessOrEqual" value="59.0"/>
                <ScoreDistribution value="QualMin" recordCount="0.6297872340425531"/>
                <ScoreDistribution value="Qualified" recordCount="0.0"/>
                <ScoreDistribution value="Failed" recordCount="4.0"/>
              </Node>
              <Node id="259" score="QualMin" recordCount="53.06718246292715">
                <SimplePredicate field="NBTMA" operator="greaterThan" value="59.0"/>
                <ScoreDistribution value="QualMin" recordCount="39.2186976144423"/>
                <ScoreDistribution value="Qualified" recordCount="6.848484848484849"/>
                <ScoreDistribution value="Failed" recordCount="7.0"/>
                <Node id="261" score="QualMin" recordCount="12.919756838905775">
                  <SimplePredicate field="AgeatFirstYear" operator="lessOrEqual" value="20.5"/>
                  <ScoreDistribution value="QualMin" recordCount="7.919756838905775"/>
                  <ScoreDistribution value="Qualified" recordCount="0.0"/>
                  <ScoreDistribution value="Failed" recordCount="5.0"/>
                  <Node id="262" score="Failed" recordCount="2.0">
                    <SimplePredicate field="MathematicsMatricMajor" operator="lessOrEqual" value="86.5"/>
                    <ScoreDistribution value="QualMin" recordCount="0.0"/>
                    <ScoreDistribution value="Qualified" recordCount="0.0"/>
                    <ScoreDistribution value="Failed" recordCount="2.0"/>
                  </Node>
                  <Node id="263" score="QualMin" recordCount="10.919756838905775">
                    <SimplePredicate field="MathematicsMatricMajor" operator="greaterThan" value="86.5"/>
                    <ScoreDistribution value="QualMin" recordCount="7.919756838905775"/>
                    <ScoreDistribution value="Qualified" recordCount="0.0"/>
                    <ScoreDistribution value="Failed" recordCount="3.0"/>
                    <Node id="264" score="QualMin" recordCount="8.735805471124621">
                      <SimplePredicate field="NBTMA" operator="lessOrEqual" value="90.0"/>
                      <ScoreDistribution value="QualMin" recordCount="7.73580547112462"/>
                      <ScoreDistribution value="Qualified" recordCount="0.0"/>
                      <ScoreDistribution value="Failed" recordCount="1.0"/>
                    </Node>
                    <Node id="267" score="Failed" recordCount="2.183951367781155">
                      <SimplePredicate field="NBTMA" operator="greaterThan" value="90.0"/>
                      <ScoreDistribution value="QualMin" recordCount="0.18395136778115498"/>
                      <ScoreDistribution value="Qualified" recordCount="0.0"/>
                      <ScoreDistribution value="Failed" recordCount="2.0"/>
                    </Node>
                  </Node>
                </Node>
                <Node id="268" score="QualMin" recordCount="40.14742562402137">
                  <SimplePredicate field="AgeatFirstYear" operator="greaterThan" value="20.5"/>
                  <ScoreDistribution value="QualMin" recordCount="31.298940775536522"/>
                  <ScoreDistribution value="Qualified" recordCount="6.848484848484849"/>
                  <ScoreDistribution value="Failed" recordCount="2.0"/>
                  <Node id="270" score="QualMin" recordCount="37.082654042517596">
                    <SimplePredicate field="PhysicsChem" operator="lessOrEqual" value="99.0"/>
                    <ScoreDistribution value="QualMin" recordCount="31.298940775536522"/>
                    <ScoreDistribution value="Qualified" recordCount="4.783713266981077"/>
                    <ScoreDistribution value="Failed" recordCount="1.0"/>
                    <Node id="271" score="QualMin" recordCount="2.088073043744145">
                      <SimplePredicate field="LifeOrientation" operator="lessOrEqual" value="82.0"/>
                      <ScoreDistribution value="QualMin" recordCount="1.0439432318668302"/>
                      <ScoreDistribution value="Qualified" recordCount="0.04412981187731471"/>
                      <ScoreDistribution value="Failed" recordCount="1.0"/>
                    </Node>
                    <Node id="272" score="QualMin" recordCount="34.99458099877346">
                      <SimplePredicate field="LifeOrientation" operator="greaterThan" value="82.0"/>
                      <ScoreDistribution value="QualMin" recordCount="30.254997543669692"/>
                      <ScoreDistribution value="Qualified" recordCount="4.739583455103762"/>
                      <ScoreDistribution value="Failed" recordCount="0.0"/>
                      <Node id="274" score="Qualified" recordCount="4.088306832748142">
                        <SimplePredicate field="EnglishFirstLang" operator="lessOrEqual" value="75.5"/>
                        <ScoreDistribution value="QualMin" recordCount="1.7682499142561885"/>
                        <ScoreDistribution value="Qualified" recordCount="2.320056918491953"/>
                        <ScoreDistribution value="Failed" recordCount="0.0"/>
                      </Node>
                      <Node id="275" score="QualMin" recordCount="30.906274166025316">
                        <SimplePredicate field="EnglishFirstLang" operator="greaterThan" value="75.5"/>
                        <ScoreDistribution value="QualMin" recordCount="28.486747629413507"/>
                        <ScoreDistribution value="Qualified" recordCount="2.4195265366118095"/>
                        <ScoreDistribution value="Failed" recordCount="0.0"/>
                        <Node id="276" score="QualMin" recordCount="25.930034562935422">
                          <SimplePredicate field="LifeOrientation" operator="lessOrEqual" value="94.5"/>
                          <ScoreDistribution value="QualMin" recordCount="25.382023299314692"/>
                          <ScoreDistribution value="Qualified" recordCount="0.5480112636207282"/>
                          <ScoreDistribution value="Failed" recordCount="0.0"/>
                        </Node>
                        <Node id="282" score="QualMin" recordCount="4.976239603089888">
                          <SimplePredicate field="LifeOrientation" operator="greaterThan" value="94.5"/>
                          <ScoreDistribution value="QualMin" recordCount="3.1047243300988066"/>
                          <ScoreDistribution value="Qualified" recordCount="1.8715152729910816"/>
                          <ScoreDistribution value="Failed" recordCount="0.0"/>
                          <Node id="283" score="Qualified" recordCount="2.9332450421657237">
                            <SimplePredicate field="NBTQL" operator="lessOrEqual" value="88.5"/>
                            <ScoreDistribution value="QualMin" recordCount="1.0617297691746421"/>
                            <ScoreDistribution value="Qualified" recordCount="1.8715152729910816"/>
                            <ScoreDistribution value="Failed" recordCount="0.0"/>
                          </Node>
                          <Node id="284" score="QualMin" recordCount="2.0429945609241646">
                            <SimplePredicate field="NBTQL" operator="greaterThan" value="88.5"/>
                            <ScoreDistribution value="QualMin" recordCount="2.0429945609241646"/>
                            <ScoreDistribution value="Qualified" recordCount="0.0"/>
                            <ScoreDistribution value="Failed" recordCount="0.0"/>
                          </Node>
                        </Node>
                      </Node>
                    </Node>
                  </Node>
                  <Node id="285" score="Qualified" recordCount="3.0647715815037713">
                    <SimplePredicate field="PhysicsChem" operator="greaterThan" value="99.0"/>
                    <ScoreDistribution value="QualMin" recordCount="0.0"/>
                    <ScoreDistribution value="Qualified" recordCount="2.0647715815037713"/>
                    <ScoreDistribution value="Failed" recordCount="1.0"/>
                  </Node>
                </Node>
              </Node>
            </Node>
          </Node>
          <Node id="287" score="Failed" recordCount="82.0">
            <SimplePredicate field="PlanDescription" operator="equal" value="Biological Sciences"/>
            <ScoreDistribution value="QualMin" recordCount="22.0"/>
            <ScoreDistribution value="Qualified" recordCount="3.0"/>
            <ScoreDistribution value="Failed" recordCount="57.0"/>
          </Node>
          <Node id="293" score="Failed" recordCount="19.0">
            <SimplePredicate field="PlanDescription" operator="equal" value="Geology"/>
            <ScoreDistribution value="QualMin" recordCount="1.0"/>
            <ScoreDistribution value="Qualified" recordCount="0.0"/>
            <ScoreDistribution value="Failed" recordCount="18.0"/>
          </Node>
          <Node id="298" score="Failed" recordCount="15.0">
            <SimplePredicate field="PlanDescription" operator="equal" value="Nuclear Sciences and Engineering"/>
            <ScoreDistribution value="QualMin" recordCount="4.0"/>
            <ScoreDistribution value="Qualified" recordCount="0.0"/>
            <ScoreDistribution value="Failed" recordCount="11.0"/>
            <Node id="299" score="Failed" recordCount="10.0">
              <SimplePredicate field="Homeprovince" operator="equal" value="GA"/>
              <ScoreDistribution value="QualMin" recordCount="0.0"/>
              <ScoreDistribution value="Qualified" recordCount="0.0"/>
              <ScoreDistribution value="Failed" recordCount="10.0"/>
            </Node>
            <Node id="300" score="QualMin" recordCount="1.0">
              <SimplePredicate field="Homeprovince" operator="equal" value="LP"/>
              <ScoreDistribution value="QualMin" recordCount="1.0"/>
              <ScoreDistribution value="Qualified" recordCount="0.0"/>
              <ScoreDistribution value="Failed" recordCount="0.0"/>
            </Node>
            <Node id="303" score="QualMin" recordCount="3.0">
              <SimplePredicate field="Homeprovince" operator="equal" value="MP"/>
              <ScoreDistribution value="QualMin" recordCount="3.0"/>
              <ScoreDistribution value="Qualified" recordCount="0.0"/>
              <ScoreDistribution value="Failed" recordCount="0.0"/>
            </Node>
            <Node id="308" score="Failed" recordCount="1.0">
              <SimplePredicate field="Homeprovince" operator="equal" value="NW"/>
              <ScoreDistribution value="QualMin" recordCount="0.0"/>
              <ScoreDistribution value="Qualified" recordCount="0.0"/>
              <ScoreDistribution value="Failed" recordCount="1.0"/>
            </Node>
          </Node>
          <Node id="311" score="QualMin" recordCount="10.0">
            <SimplePredicate field="PlanDescription" operator="equal" value="Chemistry with Chemical Engineering"/>
            <ScoreDistribution value="QualMin" recordCount="7.0"/>
            <ScoreDistribution value="Qualified" recordCount="0.0"/>
            <ScoreDistribution value="Failed" recordCount="3.0"/>
            <Node id="312" score="Failed" recordCount="2.0">
              <SimplePredicate field="AgeatFirstYear" operator="lessOrEqual" value="20.5"/>
              <ScoreDistribution value="QualMin" recordCount="0.0"/>
              <ScoreDistribution value="Qualified" recordCount="0.0"/>
              <ScoreDistribution value="Failed" recordCount="2.0"/>
            </Node>
            <Node id="313" score="QualMin" recordCount="8.0">
              <SimplePredicate field="AgeatFirstYear" operator="greaterThan" value="20.5"/>
              <ScoreDistribution value="QualMin" recordCount="7.0"/>
              <ScoreDistribution value="Qualified" recordCount="0.0"/>
              <ScoreDistribution value="Failed" recordCount="1.0"/>
            </Node>
          </Node>
          <Node id="320" score="QualMin" recordCount="7.0">
            <SimplePredicate field="PlanDescription" operator="equal" value="Applied Bioinformatics"/>
            <ScoreDistribution value="QualMin" recordCount="6.0"/>
            <ScoreDistribution value="Qualified" recordCount="0.0"/>
            <ScoreDistribution value="Failed" recordCount="1.0"/>
          </Node>
          <Node id="324" score="Qualified" recordCount="1.0">
            <SimplePredicate field="PlanDescription" operator="equal" value="Economic Science"/>
            <ScoreDistribution value="QualMin" recordCount="0.0"/>
            <ScoreDistribution value="Qualified" recordCount="1.0"/>
            <ScoreDistribution value="Failed" recordCount="0.0"/>
          </Node>
          <Node id="325" score="QualMin" recordCount="4.0">
            <SimplePredicate field="PlanDescription" operator="equal" value="Mathematics"/>
            <ScoreDistribution value="QualMin" recordCount="2.0"/>
            <ScoreDistribution value="Qualified" recordCount="0.0"/>
            <ScoreDistribution value="Failed" recordCount="2.0"/>
            <Node id="326" score="QualMin" recordCount="2.0">
              <SimplePredicate field="MathematicsMatricMajor" operator="lessOrEqual" value="93.0"/>
              <ScoreDistribution value="QualMin" recordCount="2.0"/>
              <ScoreDistribution value="Qualified" recordCount="0.0"/>
              <ScoreDistribution value="Failed" recordCount="0.0"/>
            </Node>
            <Node id="328" score="Failed" recordCount="2.0">
              <SimplePredicate field="MathematicsMatricMajor" operator="greaterThan" value="93.0"/>
              <ScoreDistribution value="QualMin" recordCount="0.0"/>
              <ScoreDistribution value="Qualified" recordCount="0.0"/>
              <ScoreDistribution value="Failed" recordCount="2.0"/>
            </Node>
          </Node>
          <Node id="329" score="Failed" recordCount="6.0">
            <SimplePredicate field="PlanDescription" operator="equal" value="Astronomy Astrophysics"/>
            <ScoreDistribution value="QualMin" recordCount="2.0"/>
            <ScoreDistribution value="Qualified" recordCount="0.0"/>
            <ScoreDistribution value="Failed" recordCount="4.0"/>
            <Node id="333" score="Failed" recordCount="4.0">
              <SimplePredicate field="MathematicsMatricMajor" operator="lessOrEqual" value="82.5"/>
              <ScoreDistribution value="QualMin" recordCount="0.0"/>
              <ScoreDistribution value="Qualified" recordCount="0.0"/>
              <ScoreDistribution value="Failed" recordCount="4.0"/>
            </Node>
            <Node id="334" score="QualMin" recordCount="2.0">
              <SimplePredicate field="MathematicsMatricMajor" operator="greaterThan" value="82.5"/>
              <ScoreDistribution value="QualMin" recordCount="2.0"/>
              <ScoreDistribution value="Qualified" recordCount="0.0"/>
              <ScoreDistribution value="Failed" recordCount="0.0"/>
            </Node>
          </Node>
          <Node id="336" score="QualMin" recordCount="3.0">
            <SimplePredicate field="PlanDescription" operator="equal" value="Investment and Corporate Finance"/>
            <ScoreDistribution value="QualMin" recordCount="3.0"/>
            <ScoreDistribution value="Qualified" recordCount="0.0"/>
            <ScoreDistribution value="Failed" recordCount="0.0"/>
          </Node>
          <Node id="338" score="Failed" recordCount="4.0">
            <SimplePredicate field="PlanDescription" operator="equal" value="Applied Computing"/>
            <ScoreDistribution value="QualMin" recordCount="1.0"/>
            <ScoreDistribution value="Qualified" recordCount="0.0"/>
            <ScoreDistribution value="Failed" recordCount="3.0"/>
          </Node>
          <Node id="343" score="QualMin" recordCount="1.0">
            <SimplePredicate field="PlanDescription" operator="equal" value="Materials Science"/>
            <ScoreDistribution value="QualMin" recordCount="1.0"/>
            <ScoreDistribution value="Qualified" recordCount="0.0"/>
            <ScoreDistribution value="Failed" recordCount="0.0"/>
          </Node>
          <Node id="345" score="QualMin" recordCount="7.0">
            <SimplePredicate field="PlanDescription" operator="equal" value="Geography and Archaeology Sciences"/>
            <ScoreDistribution value="QualMin" recordCount="4.0"/>
            <ScoreDistribution value="Qualified" recordCount="0.0"/>
            <ScoreDistribution value="Failed" recordCount="3.0"/>
            <Node id="347" score="Failed" recordCount="2.0">
              <SimplePredicate field="Homeprovince" operator="equal" value="GA"/>
              <ScoreDistribution value="QualMin" recordCount="0.0"/>
              <ScoreDistribution value="Qualified" recordCount="0.0"/>
              <ScoreDistribution value="Failed" recordCount="2.0"/>
            </Node>
            <Node id="348" score="QualMin" recordCount="1.0">
              <SimplePredicate field="Homeprovince" operator="equal" value="LP"/>
              <ScoreDistribution value="QualMin" recordCount="1.0"/>
              <ScoreDistribution value="Qualified" recordCount="0.0"/>
              <ScoreDistribution value="Failed" recordCount="0.0"/>
            </Node>
            <Node id="349" score="QualMin" recordCount="2.0">
              <SimplePredicate field="Homeprovince" operator="equal" value="EC"/>
              <ScoreDistribution value="QualMin" recordCount="1.0"/>
              <ScoreDistribution value="Qualified" recordCount="0.0"/>
              <ScoreDistribution value="Failed" recordCount="1.0"/>
            </Node>
            <Node id="352" score="QualMin" recordCount="2.0">
              <SimplePredicate field="Homeprovince" operator="equal" value="KZ"/>
              <ScoreDistribution value="QualMin" recordCount="2.0"/>
              <ScoreDistribution value="Qualified" recordCount="0.0"/>
              <ScoreDistribution value="Failed" recordCount="0.0"/>
            </Node>
          </Node>
          <Node id="361" score="QualMin" recordCount="1.0">
            <SimplePredicate field="PlanDescription" operator="equal" value="Economic Theory"/>
            <ScoreDistribution value="QualMin" recordCount="1.0"/>
            <ScoreDistribution value="Qualified" recordCount="0.0"/>
            <ScoreDistribution value="Failed" recordCount="0.0"/>
          </Node>
          <Node id="363" score="Failed" recordCount="1.0">
            <SimplePredicate field="PlanDescription" operator="equal" value="Physics"/>
            <ScoreDistribution value="QualMin" recordCount="0.0"/>
            <ScoreDistribution value="Qualified" recordCount="0.0"/>
            <ScoreDistribution value="Failed" recordCount="1.0"/>
          </Node>
          <Node id="365" score="Failed" recordCount="4.0">
            <SimplePredicate field="PlanDescription" operator="equal" value="Physical Science"/>
            <ScoreDistribution value="QualMin" recordCount="0.0"/>
            <ScoreDistribution value="Qualified" recordCount="0.0"/>
            <ScoreDistribution value="Failed" recordCount="4.0"/>
          </Node>
          <Node id="366" score="Failed" recordCount="1.0">
            <SimplePredicate field="PlanDescription" operator="equal" value="Mathematical Statistics"/>
            <ScoreDistribution value="QualMin" recordCount="0.0"/>
            <ScoreDistribution value="Qualified" recordCount="0.0"/>
            <ScoreDistribution value="Failed" recordCount="1.0"/>
          </Node>
          <Node id="367" score="Failed" recordCount="1.0">
            <SimplePredicate field="PlanDescription" operator="equal" value="Mathematics of Finance"/>
            <ScoreDistribution value="QualMin" recordCount="0.0"/>
            <ScoreDistribution value="Qualified" recordCount="0.0"/>
            <ScoreDistribution value="Failed" recordCount="1.0"/>
          </Node>
          <Node id="368" score="Failed" recordCount="1.0">
            <SimplePredicate field="PlanDescription" operator="equal" value="Mathematical Sciences A"/>
            <ScoreDistribution value="QualMin" recordCount="0.0"/>
            <ScoreDistribution value="Qualified" recordCount="0.0"/>
            <ScoreDistribution value="Failed" recordCount="1.0"/>
          </Node>
        </Node>
        <Node id="67" score="Qualified" recordCount="1648.0">
          <SimplePredicate field="AgeatFirstYear" operator="greaterThan" value="21.5"/>
          <ScoreDistribution value="QualMin" recordCount="417.0"/>
          <ScoreDistribution value="Qualified" recordCount="815.0"/>
          <ScoreDistribution value="Failed" recordCount="416.0"/>
          <Node id="92" score="Qualified" recordCount="1566.0">
            <SimplePredicate field="AgeatFirstYear" operator="lessOrEqual" value="25.5"/>
            <ScoreDistribution value="QualMin" recordCount="358.0"/>
            <ScoreDistribution value="Qualified" recordCount="799.0"/>
            <ScoreDistribution value="Failed" recordCount="409.0"/>
            <Node id="210" score="QualMin" recordCount="201.0">
              <SimplePredicate field="PlanDescription" operator="equal" value="Biochemistry and Cell Biology"/>
              <ScoreDistribution value="QualMin" recordCount="100.0"/>
              <ScoreDistribution value="Qualified" recordCount="99.0"/>
              <ScoreDistribution value="Failed" recordCount="2.0"/>
              <Node id="212" score="QualMin" recordCount="195.79274611398966">
                <SimplePredicate field="LifeSciences" operator="lessOrEqual" value="91.5"/>
                <ScoreDistribution value="QualMin" recordCount="99.89637305699483"/>
                <ScoreDistribution value="Qualified" recordCount="93.89637305699483"/>
                <ScoreDistribution value="Failed" recordCount="2.0"/>
                <Node id="218" score="Qualified" recordCount="160.84455958549225">
                  <SimplePredicate field="AgeatFirstYear" operator="lessOrEqual" value="24.5"/>
                  <ScoreDistribution value="QualMin" recordCount="74.92227979274612"/>
                  <ScoreDistribution value="Qualified" recordCount="83.92227979274612"/>
                  <ScoreDistribution value="Failed" recordCount="2.0"/>
                  <Node id="227" score="Qualified" recordCount="156.87046632124355">
                    <SimplePredicate field="International" operator="equal" value="ZAF"/>
                    <ScoreDistribution value="QualMin" recordCount="70.94818652849742"/>
                    <ScoreDistribution value="Qualified" recordCount="83.92227979274612"/>
                    <ScoreDistribution value="Failed" recordCount="2.0"/>
                    <Node id="237" score="Qualified" recordCount="154.7923552635182">
                      <SimplePredicate field="PhysicsChem" operator="lessOrEqual" value="92.5"/>
                      <ScoreDistribution value="QualMin" recordCount="68.92237830555828"/>
                      <ScoreDistribution value="Qualified" recordCount="83.86997695795992"/>
                      <ScoreDistribution value="Failed" recordCount="2.0"/>
                      <Node id="243" score="Qualified" recordCount="148.55802209034232">
                        <SimplePredicate field="PhysicsChem" operator="lessOrEqual" value="85.5"/>
                        <ScoreDistribution value="QualMin" recordCount="68.84495363674094"/>
                        <ScoreDistribution value="Qualified" recordCount="77.71306845360137"/>
                        <ScoreDistribution value="Failed" recordCount="2.0"/>
                        <Node id="255" score="Qualified" recordCount="146.50708048351396">
                          <SimplePredicate field="MathematicsMatricMajor" operator="lessOrEqual" value="90.5"/>
                          <ScoreDistribution value="QualMin" recordCount="66.81948283332676"/>
                          <ScoreDistribution value="Qualified" recordCount="77.68759765018719"/>
                          <ScoreDistribution value="Failed" recordCount="2.0"/>
                          <Node id="260" score="Qualified" recordCount="142.40519726985727">
                            <SimplePredicate field="MathematicsMatricMajor" operator="lessOrEqual" value="86.5"/>
                            <ScoreDistribution value="QualMin" recordCount="66.76854122649843"/>
                            <ScoreDistribution value="Qualified" recordCount="73.63665604335884"/>
                            <ScoreDistribution value="Failed" recordCount="2.0"/>
                            <Node id="269" score="Qualified" recordCount="140.33976766433193">
                              <SimplePredicate field="LifeSciences" operator="lessOrEqual" value="89.5"/>
                              <ScoreDistribution value="QualMin" recordCount="64.74289049550102"/>
                              <ScoreDistribution value="Qualified" recordCount="73.59687716883093"/>
                              <ScoreDistribution value="Failed" recordCount="2.0"/>
                              <Node id="273" score="Qualified" recordCount="130.24150495775655">
                                <SimplePredicate field="NBTQL" operator="lessOrEqual" value="72.5"/>
                                <ScoreDistribution value="QualMin" recordCount="61.735509050847334"/>
                                <ScoreDistribution value="Qualified" recordCount="67.57795172438449"/>
                                <ScoreDistribution value="Failed" recordCount="0.9280441825247383"/>
                                <Node id="277" score="QualMin" recordCount="103.69655491892341">
                                  <SimplePredicate field="LifeOrientation" operator="lessOrEqual" value="86.5"/>
                                  <ScoreDistribution value="QualMin" recordCount="52.98732376493852"/>
                                  <ScoreDistribution value="Qualified" recordCount="49.781186971460144"/>
                                  <ScoreDistribution value="Failed" recordCount="0.9280441825247383"/>
                                  <Node id="288" score="Qualified" recordCount="91.59760450671997">
                                    <SimplePredicate field="LifeSciences" operator="lessOrEqual" value="82.5"/>
                                    <ScoreDistribution value="QualMin" recordCount="43.897371550977816"/>
                                    <ScoreDistribution value="Qualified" recordCount="46.77218877321742"/>
                                    <ScoreDistribution value="Failed" recordCount="0.9280441825247383"/>
                                    <Node id="290" score="QualMin" recordCount="79.49865409451657">
                                      <SimplePredicate field="LifeSciences" operator="lessOrEqual" value="80.5"/>
                                      <ScoreDistribution value="QualMin" recordCount="41.73546351954186"/>
                                      <ScoreDistribution value="Qualified" recordCount="36.83514639244997"/>
                                      <ScoreDistribution value="Failed" recordCount="0.9280441825247383"/>
                                      <Node id="292" score="Qualified" recordCount="42.435046484853764">
                                        <SimplePredicate field="SchoolQuintile" operator="equal" value="Q5"/>
                                        <ScoreDistribution value="QualMin" recordCount="20.49918470705197"/>
                                        <ScoreDistribution value="Qualified" recordCount="21.007817595277054"/>
                                        <ScoreDistribution value="Failed" recordCount="0.9280441825247383"/>
                                        <Node id="296" score="QualMin" recordCount="38.79454740808177">
                                          <SimplePredicate field="isRuralorUrban" operator="equal" value="URBAN"/>
                                          <ScoreDistribution value="QualMin" recordCount="20.090064760946674"/>
                                          <ScoreDistribution value="Qualified" recordCount="17.776438464610358"/>
                                          <ScoreDistribution value="Failed" recordCount="0.9280441825247383"/>
                                          <Node id="301" score="QualMin" recordCount="36.7470039479556">
                                            <SimplePredicate field="MathematicsMatricMajor" operator="lessOrEqual" value="77.5"/>
                                            <ScoreDistribution value="QualMin" recordCount="18.05836912086256"/>
                                            <ScoreDistribution value="Qualified" recordCount="17.760590644568303"/>
                                            <ScoreDistribution value="Failed" recordCount="0.9280441825247383"/>
                                            <Node id="310" score="Qualified" recordCount="33.825145275374574">
                                              <SimplePredicate field="PhysicsChem" operator="lessOrEqual" value="70.5"/>
                                              <ScoreDistribution value="QualMin" recordCount="15.229006675771517"/>
                                              <ScoreDistribution value="Qualified" recordCount="17.668094417078322"/>
                                              <ScoreDistribution value="Failed" recordCount="0.9280441825247383"/>
                                              <Node id="314" score="QualMin" recordCount="5.97651545301676">
                                                <SimplePredicate field="NBTMA" operator="lessOrEqual" value="34.5"/>
                                                <ScoreDistribution value="QualMin" recordCount="5.1565281019765585"/>
                                                <ScoreDistribution value="Qualified" recordCount="0.656012581596141"/>
                                                <ScoreDistribution value="Failed" recordCount="0.16397476944406075"/>
                                              </Node>
                                              <Node id="319" score="Qualified" recordCount="27.848629822357818">
                                                <SimplePredicate field="NBTMA" operator="greaterThan" value="34.5"/>
                                                <ScoreDistribution value="QualMin" recordCount="10.07247857379496"/>
                                                <ScoreDistribution value="Qualified" recordCount="17.01208183548218"/>
                                                <ScoreDistribution value="Failed" recordCount="0.7640694130806776"/>
                                              </Node>
                                            </Node>
                                            <Node id="330" score="QualMin" recordCount="2.921858672581034">
                                              <SimplePredicate field="PhysicsChem" operator="greaterThan" value="70.5"/>
                                              <ScoreDistribution value="QualMin" recordCount="2.8293624450910446"/>
                                              <ScoreDistribution value="Qualified" recordCount="0.09249622748998938"/>
                                              <ScoreDistribution value="Failed" recordCount="0.0"/>
                                            </Node>
                                          </Node>
                                          <Node id="331" score="QualMin" recordCount="2.047543460126164">
                                            <SimplePredicate field="MathematicsMatricMajor" operator="greaterThan" value="77.5"/>
                                            <ScoreDistribution value="QualMin" recordCount="2.0316956400841093"/>
                                            <ScoreDistribution value="Qualified" recordCount="0.015847820042054723"/>
                                            <ScoreDistribution value="Failed" recordCount="0.0"/>
                                          </Node>
                                        </Node>
                                        <Node id="332" score="Qualified" recordCount="3.6404990767719854">
                                          <SimplePredicate field="isRuralorUrban" operator="equal" value="RURAL"/>
                                          <ScoreDistribution value="QualMin" recordCount="0.4091199461052947"/>
                                          <ScoreDistribution value="Qualified" recordCount="3.231379130666691"/>
                                          <ScoreDistribution value="Failed" recordCount="0.0"/>
                                        </Node>
                                      </Node>
                                      <Node id="335" score="Qualified" recordCount="9.159082310804013">
                                        <SimplePredicate field="SchoolQuintile" operator="equal" value="Q2"/>
                                        <ScoreDistribution value="QualMin" recordCount="2.780301927043787"/>
                                        <ScoreDistribution value="Qualified" recordCount="6.378780383760225"/>
                                        <ScoreDistribution value="Failed" recordCount="0.0"/>
                                      </Node>
                                      <Node id="339" score="QualMin" recordCount="10.432151109588547">
                                        <SimplePredicate field="SchoolQuintile" operator="equal" value="Q4"/>
                                        <ScoreDistribution value="QualMin" recordCount="6.908763208344924"/>
                                        <ScoreDistribution value="Qualified" recordCount="3.523387901243623"/>
                                        <ScoreDistribution value="Failed" recordCount="0.0"/>
                                      </Node>
                                      <Node id="346" score="QualMin" recordCount="12.892833033868266">
                                        <SimplePredicate field="SchoolQuintile" operator="equal" value="Q3"/>
                                        <ScoreDistribution value="QualMin" recordCount="8.229018531054566"/>
                                        <ScoreDistribution value="Qualified" recordCount="4.6638145028137"/>
                                        <ScoreDistribution value="Failed" recordCount="0.0"/>
                                      </Node>
                                      <Node id="350" score="QualMin" recordCount="4.579541155402007">
                                        <SimplePredicate field="SchoolQuintile" operator="equal" value="Q1"/>
                                        <ScoreDistribution value="QualMin" recordCount="3.3181951460466323"/>
                                        <ScoreDistribution value="Qualified" recordCount="1.2613460093553743"/>
                                        <ScoreDistribution value="Failed" recordCount="0.0"/>
                                      </Node>
                                    </Node>
                                    <Node id="369" score="Qualified" recordCount="12.098950412203418">
                                      <SimplePredicate field="LifeSciences" operator="greaterThan" value="80.5"/>
                                      <ScoreDistribution value="QualMin" recordCount="2.1619080314359618"/>
                                      <ScoreDistribution value="Qualified" recordCount="9.937042380767457"/>
                                      <ScoreDistribution value="Failed" recordCount="0.0"/>
                                    </Node>
                                  </Node>
                                  <Node id="370" score="QualMin" recordCount="12.098950412203418">
                                    <SimplePredicate field="LifeSciences" operator="greaterThan" value="82.5"/>
                                    <ScoreDistribution value="QualMin" recordCount="9.089952213960698"/>
                                    <ScoreDistribution value="Qualified" recordCount="3.008998198242719"/>
                                    <ScoreDistribution value="Failed" recordCount="0.0"/>
                                    <Node id="371" score="Qualified" recordCount="3.6392474766179586">
                                      <SimplePredicate field="NBTMA" operator="lessOrEqual" value="36.5"/>
                                      <ScoreDistribution value="QualMin" recordCount="1.3601007461679697"/>
                                      <ScoreDistribution value="Qualified" recordCount="2.279146730449989"/>
                                      <ScoreDistribution value="Failed" recordCount="0.0"/>
                                    </Node>
                                    <Node id="372" score="QualMin" recordCount="8.45970293558546">
                                      <SimplePredicate field="NBTMA" operator="greaterThan" value="36.5"/>
                                      <ScoreDistribution value="QualMin" recordCount="7.72985146779273"/>
                                      <ScoreDistribution value="Qualified" recordCount="0.7298514677927302"/>
                                      <ScoreDistribution value="Failed" recordCount="0.0"/>
                                    </Node>
                                  </Node>
                                </Node>
                                <Node id="373" score="Qualified" recordCount="26.544950038833164">
                                  <SimplePredicate field="LifeOrientation" operator="greaterThan" value="86.5"/>
                                  <ScoreDistribution value="QualMin" recordCount="8.748185285908816"/>
                                  <ScoreDistribution value="Qualified" recordCount="17.796764752924346"/>
                                  <ScoreDistribution value="Failed" recordCount="0.0"/>
                                  <Node id="374" score="Qualified" recordCount="23.367829622392946">
                                    <SimplePredicate field="PhysicsChem" operator="lessOrEqual" value="82.5"/>
                                    <ScoreDistribution value="QualMin" recordCount="5.7056690927899485"/>
                                    <ScoreDistribution value="Qualified" recordCount="17.662160529602996"/>
                                    <ScoreDistribution value="Failed" recordCount="0.0"/>
                                    <Node id="375" score="Qualified" recordCount="11.870796293300362">
                                      <SimplePredicate field="PhysicsChem" operator="lessOrEqual" value="71.5"/>
                                      <ScoreDistribution value="QualMin" recordCount="0.5518159096419724"/>
                                      <ScoreDistribution value="Qualified" recordCount="11.31898038365839"/>
                                      <ScoreDistribution value="Failed" recordCount="0.0"/>
                                    </Node>
                                    <Node id="380" score="Qualified" recordCount="11.497033329092584">
                                      <SimplePredicate field="PhysicsChem" operator="greaterThan" value="71.5"/>
                                      <ScoreDistribution value="QualMin" recordCount="5.153853183147977"/>
                                      <ScoreDistribution value="Qualified" recordCount="6.343180145944607"/>
                                      <ScoreDistribution value="Failed" recordCount="0.0"/>
                                      <Node id="381" score="QualMin" recordCount="7.069959369147412">
                                        <SimplePredicate field="LifeSciences" operator="lessOrEqual" value="80.5"/>
                                        <ScoreDistribution value="QualMin" recordCount="5.094610124415116"/>
                                        <ScoreDistribution value="Qualified" recordCount="1.9753492447322967"/>
                                        <ScoreDistribution value="Failed" recordCount="0.0"/>
                                        <Node id="382" score="Qualified" recordCount="2.9880227169645988">
                                          <SimplePredicate field="LifeSciences" operator="lessOrEqual" value="73.5"/>
                                          <ScoreDistribution value="QualMin" recordCount="1.0399856896265738"/>
                                          <ScoreDistribution value="Qualified" recordCount="1.9480370273380252"/>
                                          <ScoreDistribution value="Failed" recordCount="0.0"/>
                                        </Node>
                                        <Node id="383" score="QualMin" recordCount="4.081936652182815">
                                          <SimplePredicate field="LifeSciences" operator="greaterThan" value="73.5"/>
                                          <ScoreDistribution value="QualMin" recordCount="4.054624434788543"/>
                                          <ScoreDistribution value="Qualified" recordCount="0.02731221739427142"/>
                                          <ScoreDistribution value="Failed" recordCount="0.0"/>
                                        </Node>
                                      </Node>
                                      <Node id="384" score="Qualified" recordCount="4.4270739599451705">
                                        <SimplePredicate field="LifeSciences" operator="greaterThan" value="80.5"/>
                                        <ScoreDistribution value="QualMin" recordCount="0.05924305873286018"/>
                                        <ScoreDistribution value="Qualified" recordCount="4.367830901212311"/>
                                        <ScoreDistribution value="Failed" recordCount="0.0"/>
                                      </Node>
                                    </Node>
                                  </Node>
                                  <Node id="387" score="QualMin" recordCount="3.1771204164402143">
                                    <SimplePredicate field="PhysicsChem" operator="greaterThan" value="82.5"/>
                                    <ScoreDistribution value="QualMin" recordCount="3.0425161931188676"/>
                                    <ScoreDistribution value="Qualified" recordCount="0.13460422332134683"/>
                                    <ScoreDistribution value="Failed" recordCount="0.0"/>
                                  </Node>
                                </Node>
                              </Node>
                              <Node id="388" score="Qualified" recordCount="10.098262706575328">
                                <SimplePredicate field="NBTQL" operator="greaterThan" value="72.5"/>
                                <ScoreDistribution value="QualMin" recordCount="3.0073814446536637"/>
                                <ScoreDistribution value="Qualified" recordCount="6.0189254444464035"/>
                                <ScoreDistribution value="Failed" recordCount="1.0719558174752617"/>
                                <Node id="389" score="QualMin" recordCount="2.6476023572773553">
                                  <SimplePredicate field="AgeatFirstYear" operator="lessOrEqual" value="22.5"/>
                                  <ScoreDistribution value="QualMin" recordCount="1.2878232699010468"/>
                                  <ScoreDistribution value="Qualified" recordCount="0.2878232699010468"/>
                                  <ScoreDistribution value="Failed" recordCount="1.0719558174752617"/>
                                </Node>
                                <Node id="390" score="Qualified" recordCount="7.450660349297974">
                                  <SimplePredicate field="AgeatFirstYear" operator="greaterThan" value="22.5"/>
                                  <ScoreDistribution value="QualMin" recordCount="1.719558174752617"/>
                                  <ScoreDistribution value="Qualified" recordCount="5.731102174545357"/>
                                  <ScoreDistribution value="Failed" recordCount="0.0"/>
                                </Node>
                              </Node>
                            </Node>
                            <Node id="395" score="QualMin" recordCount="2.065429605525347">
                              <SimplePredicate field="LifeSciences" operator="greaterThan" value="89.5"/>
                              <ScoreDistribution value="QualMin" recordCount="2.025650730997408"/>
                              <ScoreDistribution value="Qualified" recordCount="0.03977887452793886"/>
                              <ScoreDistribution value="Failed" recordCount="0.0"/>
                            </Node>
                          </Node>
                          <Node id="396" score="Qualified" recordCount="4.101883213656687">
                            <SimplePredicate field="MathematicsMatricMajor" operator="greaterThan" value="86.5"/>
                            <ScoreDistribution value="QualMin" recordCount="0.050941606828343367"/>
                            <ScoreDistribution value="Qualified" recordCount="4.050941606828344"/>
                            <ScoreDistribution value="Failed" recordCount="0.0"/>
                          </Node>
                        </Node>
                        <Node id="399" score="QualMin" recordCount="2.0509416068283444">
                          <SimplePredicate field="MathematicsMatricMajor" operator="greaterThan" value="90.5"/>
                          <ScoreDistribution value="QualMin" recordCount="2.025470803414172"/>
                          <ScoreDistribution value="Qualified" recordCount="0.02547080341417232"/>
                          <ScoreDistribution value="Failed" recordCount="0.0"/>
                        </Node>
                      </Node>
                      <Node id="400" score="Qualified" recordCount="6.234333173175923">
                        <SimplePredicate field="PhysicsChem" operator="greaterThan" value="85.5"/>
                        <ScoreDistribution value="QualMin" recordCount="0.07742466881735194"/>
                        <ScoreDistribution value="Qualified" recordCount="6.1569085043585705"/>
                        <ScoreDistribution value="Failed" recordCount="0.0"/>
                      </Node>
                    </Node>
                    <Node id="403" score="QualMin" recordCount="2.0781110577253052">
                      <SimplePredicate field="PhysicsChem" operator="greaterThan" value="92.5"/>
                      <ScoreDistribution value="QualMin" recordCount="2.0258082229391166"/>
                      <ScoreDistribution value="Qualified" recordCount="0.05230283478618859"/>
                      <ScoreDistribution value="Failed" recordCount="0.0"/>
                    </Node>
                  </Node>
                  <Node id="404" score="QualMin" recordCount="3.9740932642487046">
                    <SimplePredicate field="International" operator="equal" value="IS"/>
                    <ScoreDistribution value="QualMin" recordCount="3.9740932642487046"/>
                    <ScoreDistribution value="Qualified" recordCount="0.0"/>
                    <ScoreDistribution value="Failed" recordCount="0.0"/>
                  </Node>
                </Node>
                <Node id="405" score="QualMin" recordCount="34.94818652849741">
                  <SimplePredicate field="AgeatFirstYear" operator="greaterThan" value="24.5"/>
                  <ScoreDistribution value="QualMin" recordCount="24.974093264248705"/>
                  <ScoreDistribution value="Qualified" recordCount="9.974093264248705"/>
                  <ScoreDistribution value="Failed" recordCount="0.0"/>
                </Node>
              </Node>
              <Node id="406" score="Qualified" recordCount="5.207253886010363">
                <SimplePredicate field="LifeSciences" operator="greaterThan" value="91.5"/>
                <ScoreDistribution value="QualMin" recordCount="0.10362694300518127"/>
                <ScoreDistribution value="Qualified" recordCount="5.103626943005182"/>
                <ScoreDistribution value="Failed" recordCount="0.0"/>
              </Node>
            </Node>
            <Node id="407" score="Qualified" recordCount="46.0">
              <SimplePredicate field="PlanDescription" operator="equal" value="Geography"/>
              <ScoreDistribution value="QualMin" recordCount="10.0"/>
              <ScoreDistribution value="Qualified" recordCount="35.0"/>
              <ScoreDistribution value="Failed" recordCount="1.0"/>
              <Node id="408" score="Qualified" recordCount="4.0">
                <SimplePredicate field="LifeOrientation" operator="lessOrEqual" value="72.5"/>
                <ScoreDistribution value="QualMin" recordCount="0.0"/>
                <ScoreDistribution value="Qualified" recordCount="3.0"/>
                <ScoreDistribution value="Failed" recordCount="1.0"/>
              </Node>
              <Node id="411" score="Qualified" recordCount="42.0">
                <SimplePredicate field="LifeOrientation" operator="greaterThan" value="72.5"/>
                <ScoreDistribution value="QualMin" recordCount="10.0"/>
                <ScoreDistribution value="Qualified" recordCount="32.0"/>
                <ScoreDistribution value="Failed" recordCount="0.0"/>
                <Node id="412" score="QualMin" recordCount="13.0">
                  <SimplePredicate field="AgeatFirstYear" operator="lessOrEqual" value="22.5"/>
                  <ScoreDistribution value="QualMin" recordCount="7.0"/>
                  <ScoreDistribution value="Qualified" recordCount="6.0"/>
                  <ScoreDistribution value="Failed" recordCount="0.0"/>
                  <Node id="413" score="QualMin" recordCount="11.0">
                    <SimplePredicate field="PhysicsChem" operator="lessOrEqual" value="76.5"/>
                    <ScoreDistribution value="QualMin" recordCount="7.0"/>
                    <ScoreDistribution value="Qualified" recordCount="4.0"/>
                    <ScoreDistribution value="Failed" recordCount="0.0"/>
                    <Node id="414" score="QualMin" recordCount="3.0">
                      <SimplePredicate field="LifeOrientation" operator="lessOrEqual" value="83.5"/>
                      <ScoreDistribution value="QualMin" recordCount="3.0"/>
                      <ScoreDistribution value="Qualified" recordCount="0.0"/>
                      <ScoreDistribution value="Failed" recordCount="0.0"/>
                    </Node>
                    <Node id="415" score="QualMin" recordCount="8.0">
                      <SimplePredicate field="LifeOrientation" operator="greaterThan" value="83.5"/>
                      <ScoreDistribution value="QualMin" recordCount="4.0"/>
                      <ScoreDistribution value="Qualified" recordCount="4.0"/>
                      <ScoreDistribution value="Failed" recordCount="0.0"/>
                      <Node id="416" score="QualMin" recordCount="6.0">
                        <SimplePredicate field="Geography" operator="lessOrEqual" value="81.0"/>
                        <ScoreDistribution value="QualMin" recordCount="4.0"/>
                        <ScoreDistribution value="Qualified" recordCount="2.0"/>
                        <ScoreDistribution value="Failed" recordCount="0.0"/>
                        <Node id="417" score="Qualified" recordCount="3.0">
                          <SimplePredicate field="LifeSciences" operator="lessOrEqual" value="77.5"/>
                          <ScoreDistribution value="QualMin" recordCount="1.0"/>
                          <ScoreDistribution value="Qualified" recordCount="2.0"/>
                          <ScoreDistribution value="Failed" recordCount="0.0"/>
                        </Node>
                        <Node id="418" score="QualMin" recordCount="3.0">
                          <SimplePredicate field="LifeSciences" operator="greaterThan" value="77.5"/>
                          <ScoreDistribution value="QualMin" recordCount="3.0"/>
                          <ScoreDistribution value="Qualified" recordCount="0.0"/>
                          <ScoreDistribution value="Failed" recordCount="0.0"/>
                        </Node>
                      </Node>
                      <Node id="419" score="Qualified" recordCount="2.0">
                        <SimplePredicate field="Geography" operator="greaterThan" value="81.0"/>
                        <ScoreDistribution value="QualMin" recordCount="0.0"/>
                        <ScoreDistribution value="Qualified" recordCount="2.0"/>
                        <ScoreDistribution value="Failed" recordCount="0.0"/>
                      </Node>
                    </Node>
                  </Node>
                  <Node id="420" score="Qualified" recordCount="2.0">
                    <SimplePredicate field="PhysicsChem" operator="greaterThan" value="76.5"/>
                    <ScoreDistribution value="QualMin" recordCount="0.0"/>
                    <ScoreDistribution value="Qualified" recordCount="2.0"/>
                    <ScoreDistribution value="Failed" recordCount="0.0"/>
                  </Node>
                </Node>
                <Node id="421" score="Qualified" recordCount="29.0">
                  <SimplePredicate field="AgeatFirstYear" operator="greaterThan" value="22.5"/>
                  <ScoreDistribution value="QualMin" recordCount="3.0"/>
                  <ScoreDistribution value="Qualified" recordCount="26.0"/>
                  <ScoreDistribution value="Failed" recordCount="0.0"/>
                  <Node id="422" score="QualMin" recordCount="2.0">
                    <SimplePredicate field="MathematicsMatricMajor" operator="lessOrEqual" value="56.5"/>
                    <ScoreDistribution value="QualMin" recordCount="1.0"/>
                    <ScoreDistribution value="Qualified" recordCount="1.0"/>
                    <ScoreDistribution value="Failed" recordCount="0.0"/>
                  </Node>
                  <Node id="423" score="Qualified" recordCount="27.0">
                    <SimplePredicate field="MathematicsMatricMajor" operator="greaterThan" value="56.5"/>
                    <ScoreDistribution value="QualMin" recordCount="2.0"/>
                    <ScoreDistribution value="Qualified" recordCount="25.0"/>
                    <ScoreDistribution value="Failed" recordCount="0.0"/>
                    <Node id="424" score="Qualified" recordCount="6.0">
                      <SimplePredicate field="PhysicsChem" operator="lessOrEqual" value="63.5"/>
                      <ScoreDistribution value="QualMin" recordCount="2.0"/>
                      <ScoreDistribution value="Qualified" recordCount="4.0"/>
                      <ScoreDistribution value="Failed" recordCount="0.0"/>
                      <Node id="425" score="Qualified" recordCount="4.0">
                        <SimplePredicate field="PhysicsChem" operator="lessOrEqual" value="59.5"/>
                        <ScoreDistribution value="QualMin" recordCount="0.0"/>
                        <ScoreDistribution value="Qualified" recordCount="4.0"/>
                        <ScoreDistribution value="Failed" recordCount="0.0"/>
                      </Node>
                      <Node id="426" score="QualMin" recordCount="2.0">
                        <SimplePredicate field="PhysicsChem" operator="greaterThan" value="59.5"/>
                        <ScoreDistribution value="QualMin" recordCount="2.0"/>
                        <ScoreDistribution value="Qualified" recordCount="0.0"/>
                        <ScoreDistribution value="Failed" recordCount="0.0"/>
                      </Node>
                    </Node>
                    <Node id="427" score="Qualified" recordCount="21.0">
                      <SimplePredicate field="PhysicsChem" operator="greaterThan" value="63.5"/>
                      <ScoreDistribution value="QualMin" recordCount="0.0"/>
                      <ScoreDistribution value="Qualified" recordCount="21.0"/>
                      <ScoreDistribution value="Failed" recordCount="0.0"/>
                    </Node>
                  </Node>
                </Node>
              </Node>
            </Node>
            <Node id="428" score="Qualified" recordCount="92.0">
              <SimplePredicate field="PlanDescription" operator="equal" value="Genetics &amp; Development Biology"/>
              <ScoreDistribution value="QualMin" recordCount="40.0"/>
              <ScoreDistribution value="Qualified" recordCount="50.0"/>
              <ScoreDistribution value="Failed" recordCount="2.0"/>
              <Node id="429" score="Qualified" recordCount="64.0">
                <SimplePredicate field="Homeprovince" operator="equal" value="GA"/>
                <ScoreDistribution value="QualMin" recordCount="29.0"/>
                <ScoreDistribution value="Qualified" recordCount="35.0"/>
                <ScoreDistribution value="Failed" recordCount="0.0"/>
                <Node id="430" score="Qualified" recordCount="60.85245901639344">
                  <SimplePredicate field="LifeSciences" operator="lessOrEqual" value="85.5"/>
                  <ScoreDistribution value="QualMin" recordCount="28.950819672131146"/>
                  <ScoreDistribution value="Qualified" recordCount="31.901639344262293"/>
                  <ScoreDistribution value="Failed" recordCount="0.0"/>
                  <Node id="431" score="Qualified" recordCount="58.75409836065573">
                    <SimplePredicate field="MathematicsMatricMajor" operator="lessOrEqual" value="86.0"/>
                    <ScoreDistribution value="QualMin" recordCount="28.918032786885245"/>
                    <ScoreDistribution value="Qualified" recordCount="29.83606557377049"/>
                    <ScoreDistribution value="Failed" recordCount="0.0"/>
                    <Node id="432" score="Qualified" recordCount="10.881222970934326">
                      <SimplePredicate field="NBTMA" operator="lessOrEqual" value="35.5"/>
                      <ScoreDistribution value="QualMin" recordCount="2.4815950920245395"/>
                      <ScoreDistribution value="Qualified" recordCount="8.399627878909786"/>
                      <ScoreDistribution value="Failed" recordCount="0.0"/>
                      <Node id="433" score="Qualified" recordCount="7.968703506538997">
                        <SimplePredicate field="MathematicsMatricMajor" operator="lessOrEqual" value="68.5"/>
                        <ScoreDistribution value="QualMin" recordCount="0.5555981595092023"/>
                        <ScoreDistribution value="Qualified" recordCount="7.413105347029795"/>
                        <ScoreDistribution value="Failed" recordCount="0.0"/>
                      </Node>
                      <Node id="436" score="QualMin" recordCount="2.912519464395329">
                        <SimplePredicate field="MathematicsMatricMajor" operator="greaterThan" value="68.5"/>
                        <ScoreDistribution value="QualMin" recordCount="1.9259969325153372"/>
                        <ScoreDistribution value="Qualified" recordCount="0.9865225318799917"/>
                        <ScoreDistribution value="Failed" recordCount="0.0"/>
                      </Node>
                    </Node>
                    <Node id="437" score="QualMin" recordCount="47.87287538972141">
                      <SimplePredicate field="NBTMA" operator="greaterThan" value="35.5"/>
